FANN_FLO_2.1
num_layers=3
learning_rate=0.700000
connection_rate=1.000000
network_type=0
learning_momentum=0.000000
training_algorithm=2
train_error_function=0
train_stop_function=0
cascade_output_change_fraction=0.010000
quickprop_decay=-0.000100
quickprop_mu=1.750000
rprop_increase_factor=1.200000
rprop_decrease_factor=0.500000
rprop_delta_min=0.000000
rprop_delta_max=50.000000
rprop_delta_zero=0.100000
cascade_output_stagnation_epochs=12
cascade_candidate_change_fraction=0.010000
cascade_candidate_stagnation_epochs=12
cascade_max_out_epochs=150
cascade_max_cand_epochs=150
cascade_num_candidate_groups=2
bit_fail_limit=3.49999994039535520000e-001
cascade_candidate_limit=1.00000000000000000000e+003
cascade_weight_multiplier=4.00000005960464480000e-001
cascade_activation_functions_count=10
cascade_activation_functions=3 5 7 8 10 11 14 15 16 17 
cascade_activation_steepnesses_count=4
cascade_activation_steepnesses=2.50000000000000000000e-001 5.00000000000000000000e-001 7.50000000000000000000e-001 1.00000000000000000000e+000 
layer_sizes=23 11 2 
scale_included=0
neurons (num_inputs, activation_function, activation_steepness)=(0, 0, 0.00000000000000000000e+000) (0, 0, 0.00000000000000000000e+000) (0, 0, 0.00000000000000000000e+000) (0, 0, 0.00000000000000000000e+000) (0, 0, 0.00000000000000000000e+000) (0, 0, 0.00000000000000000000e+000) (0, 0, 0.00000000000000000000e+000) (0, 0, 0.00000000000000000000e+000) (0, 0, 0.00000000000000000000e+000) (0, 0, 0.00000000000000000000e+000) (0, 0, 0.00000000000000000000e+000) (0, 0, 0.00000000000000000000e+000) (0, 0, 0.00000000000000000000e+000) (0, 0, 0.00000000000000000000e+000) (0, 0, 0.00000000000000000000e+000) (0, 0, 0.00000000000000000000e+000) (0, 0, 0.00000000000000000000e+000) (0, 0, 0.00000000000000000000e+000) (0, 0, 0.00000000000000000000e+000) (0, 0, 0.00000000000000000000e+000) (0, 0, 0.00000000000000000000e+000) (0, 0, 0.00000000000000000000e+000) (0, 0, 0.00000000000000000000e+000) (23, 5, 5.00000000000000000000e-001) (23, 5, 5.00000000000000000000e-001) (23, 5, 5.00000000000000000000e-001) (23, 5, 5.00000000000000000000e-001) (23, 5, 5.00000000000000000000e-001) (23, 5, 5.00000000000000000000e-001) (23, 5, 5.00000000000000000000e-001) (23, 5, 5.00000000000000000000e-001) (23, 5, 5.00000000000000000000e-001) (23, 5, 5.00000000000000000000e-001) (0, 5, 5.00000000000000000000e-001) (11, 5, 5.00000000000000000000e-001) (0, 5, 5.00000000000000000000e-001) 
connections (connected_to_neuron, weight)=(0, -9.29816886782646180000e-002) (1, -3.23194652795791630000e-001) (2, 2.67579150386154650000e-003) (3, -5.04216909408569340000e-001) (4, -2.06223487854003910000e+000) (5, 1.34020984172821040000e+000) (6, -1.17099070549011230000e+000) (7, 1.36685943603515620000e+000) (8, 6.92598760128021240000e-001) (9, 3.83662843704223630000e+000) (10, -4.66204851865768430000e-001) (11, -3.24857926368713380000e+000) (12, 5.04134416580200200000e+000) (13, -4.71758544445037840000e-001) (14, -7.87986576557159420000e-001) (15, 4.10123676061630250000e-001) (16, -3.31004202365875240000e-001) (17, -3.38948071002960210000e-001) (18, 7.27755784988403320000e-001) (19, 8.50326478481292720000e-001) (20, 5.43398037552833560000e-003) (21, 1.52335882186889650000e-001) (22, -7.01215267181396480000e-002) (0, -4.53096103668212890000e+000) (1, 8.75011825561523440000e+000) (2, 4.35438442230224610000e+000) (3, -1.22604921460151670000e-001) (4, 1.97162971496582030000e+001) (5, -4.47100162506103520000e+000) (6, -2.23777264356613160000e-001) (7, -4.29447174072265630000e+000) (8, -1.70370578765869140000e+001) (9, -1.22727165222167970000e+001) (10, -6.09438598155975340000e-001) (11, -4.01570167541503910000e+001) (12, -3.72618985176086430000e+000) (13, -5.98260104656219480000e-001) (14, 7.18129043579101560000e+001) (15, 1.02192277908325200000e+001) (16, -1.06667709350585940000e+000) (17, -7.91332304477691650000e-001) (18, -9.03950786590576170000e+000) (19, 5.99501991271972660000e+000) (20, -2.50848352909088130000e-001) (21, -9.89856183528900150000e-001) (22, 1.14026553928852080000e-001) (0, 4.26055967807769780000e-001) (1, 2.04469516873359680000e-001) (2, -2.15851843357086180000e-001) (3, -6.18739187717437740000e-001) (4, 6.99578821659088130000e-002) (5, 3.47623229026794430000e+000) (6, 2.63915729522705080000e+000) (7, 3.73373603820800780000e+000) (8, -1.38508722186088560000e-001) (9, 4.81673181056976320000e-001) (10, -2.87658667564392090000e+000) (11, -1.25644111633300780000e+000) (12, 9.78202533721923830000e+000) (13, -2.78256416320800780000e+000) (14, 8.79933714866638180000e-001) (15, 1.36882755905389790000e-002) (16, 4.78901386260986330000e+000) (17, -5.99263012409210210000e-001) (18, 8.11423301696777340000e-001) (19, -2.94078731536865230000e+000) (20, -1.56428086757659910000e+000) (21, 1.22362291812896730000e+000) (22, -1.79248731583356860000e-002) (0, -2.85542476922273640000e-002) (1, -7.30047523975372310000e-001) (2, -1.39426505193114280000e-002) (3, 3.38290119171142580000e+000) (4, 4.32695198059082030000e+001) (5, 2.73241472244262700000e+000) (6, 7.99954295158386230000e-001) (7, 3.38258814811706540000e+000) (8, 2.48132586479187010000e-001) (9, 5.64130306243896480000e-001) (10, -3.83862912654876710000e-001) (11, -3.92202258110046390000e+000) (12, 3.43498840332031250000e+001) (13, -2.67366111278533940000e-001) (14, 5.00908203125000000000e+001) (15, -4.12867702543735500000e-002) (16, -6.39072433114051820000e-002) (17, -1.41683489084243770000e-001) (18, 4.62959945201873780000e-001) (19, -4.94505047798156740000e-001) (20, -4.10988426208496090000e+000) (21, 7.19325184822082520000e-001) (22, 8.16103368997573850000e-002) (0, 2.03558187931776050000e-002) (1, -2.52695798873901370000e+000) (2, -8.76327991485595700000e-001) (3, 7.46745634078979490000e+000) (4, 1.19972789287567140000e+000) (5, -5.19271326065063480000e+000) (6, 6.75461292266845700000e+000) (7, -5.71822643280029300000e+000) (8, -2.27289271354675290000e+000) (9, -1.03477497100830080000e+001) (10, -9.04676914215087890000e-001) (11, -5.38619279861450200000e-001) (12, -6.72781419754028320000e+000) (13, -8.64253640174865720000e-001) (14, 1.39292192459106450000e+001) (15, 7.16712296009063720000e-001) (16, 4.48142480850219730000e+000) (17, 4.10636043548583980000e+000) (18, -1.84518027305603030000e+000) (19, -1.22956657409667970000e+000) (20, -2.40878438949584960000e+000) (21, -2.01284623146057130000e+000) (22, -2.58990496397018430000e-001) (0, 1.23361378908157350000e-001) (1, -5.53085625171661380000e-001) (2, 1.51850664615631100000e+000) (3, 1.93523159027099610000e+001) (4, 5.31639051437377930000e+000) (5, -4.81995058059692380000e+000) (6, 3.03976511955261230000e+000) (7, -4.90195131301879880000e+000) (8, -6.57846748828887940000e-001) (9, -1.36409168243408200000e+001) (10, 8.40357765555381770000e-002) (11, -3.12363505363464360000e-001) (12, -9.48173332214355470000e+000) (13, 1.05410434305667880000e-001) (14, 2.45709743499755860000e+001) (15, 8.93976032733917240000e-001) (16, 3.34255194664001460000e+000) (17, 3.45189023017883300000e+000) (18, -2.79462504386901860000e+000) (19, -2.28363442420959470000e+000) (20, -6.77487182617187500000e+000) (21, -1.49753665924072270000e+000) (22, -3.19193601608276370000e-001) (0, -7.35963955521583560000e-002) (1, -3.51761281490325930000e-001) (2, -2.16103531420230870000e-002) (3, -1.52534306049346920000e+000) (4, -5.94911396503448490000e-001) (5, 2.05769658088684080000e+000) (6, -1.39174163341522220000e+000) (7, 2.07749390602111820000e+000) (8, 4.03273701667785640000e-002) (9, 6.74830555915832520000e-001) (10, -6.40450894832611080000e-001) (11, -1.36084818840026860000e+000) (12, 4.96142148971557620000e+000) (13, -5.34522712230682370000e-001) (14, -8.21645557880401610000e-001) (15, 5.92441260814666750000e-001) (16, -2.03065335750579830000e-001) (17, -2.31469690799713130000e-001) (18, 7.69887149333953860000e-001) (19, 1.02417957782745360000e+000) (20, -7.47478380799293520000e-002) (21, 4.37589943408966060000e-001) (22, -4.68824058771133420000e-002) (0, 1.00819885730743410000e+000) (1, 2.45974044799804690000e+001) (2, -5.18774175643920900000e+000) (3, 1.39809477329254150000e+000) (4, 6.07473659515380860000e+000) (5, -2.94098606109619140000e+001) (6, 1.31601318717002870000e-001) (7, -6.12603111267089840000e+001) (8, -4.03541374206542970000e+000) (9, -7.52357912063598630000e+000) (10, -4.94250595569610600000e-001) (11, -5.49757232666015630000e+001) (12, 2.13069496154785160000e+001) (13, -5.16148805618286130000e-001) (14, 8.35848770141601560000e+001) (15, 1.21076145172119140000e+001) (16, 6.08171403408050540000e-001) (17, -5.36597251892089840000e-001) (18, -4.83868169784545900000e+000) (19, 4.04381513595581050000e+000) (20, 3.34900170564651490000e-001) (21, -4.13012653589248660000e-002) (22, -7.23643377423286440000e-002) (0, 8.93920421600341800000e-001) (1, -6.93578243255615230000e-001) (2, 4.80651408433914180000e-001) (3, -9.83480987548828130000e+001) (4, 3.88357710838317870000e+000) (5, 5.77294528484344480000e-001) (6, 6.06651186943054200000e-001) (7, 4.13881212472915650000e-001) (8, 3.50015729665756230000e-001) (9, 3.48920655250549320000e+000) (10, -2.24967250823974610000e+001) (11, -1.55912029743194580000e+000) (12, 3.20728015899658200000e+000) (13, -2.08720169067382810000e+001) (14, 2.44414234161376950000e+001) (15, 2.44078904390335080000e-001) (16, -6.16659641265869140000e+000) (17, 3.80163407325744630000e+000) (18, -4.21111679077148440000e+000) (19, 6.83292579650878910000e+000) (20, 9.52316474914550780000e+000) (21, -4.15912532806396480000e+000) (22, 9.11927938461303710000e-001) (0, 4.63591292500495910000e-002) (1, -1.89723685383796690000e-001) (2, -3.42602998018264770000e-001) (3, -1.71712589263916020000e+000) (4, -7.80138969421386720000e-001) (5, 2.34292507171630860000e+000) (6, -9.21536922454833980000e-001) (7, 2.28694581985473630000e+000) (8, 6.66510283946990970000e-001) (9, 1.35632264614105220000e+000) (10, 1.69271662831306460000e-001) (11, -5.91048288345336910000e+000) (12, 2.00848579406738280000e+000) (13, 2.49228239059448240000e-001) (14, 6.26662790775299070000e-001) (15, 5.73431193828582760000e-001) (16, -2.88498401641845700000e-001) (17, -2.82525241374969480000e-001) (18, 6.20053231716156010000e-001) (19, 6.88396930694580080000e-001) (20, 1.75627529621124270000e-001) (21, -9.36692595481872560000e-001) (22, -7.24785178899765010000e-002) (23, 5.10594749450683590000e+000) (24, -1.44961583614349370000e+000) (25, 3.12326860427856450000e+000) (26, 3.94589638710021970000e+000) (27, -8.34722399711608890000e-001) (28, -2.37476921081542970000e+000) (29, 2.30695486068725590000e+000) (30, -2.76607155799865720000e+000) (31, 3.70969796180725100000e+000) (32, 1.34433307647705080000e+001) (33, 1.01657807826995850000e+000) 
