FANN_FLO_2.1
num_layers=4
learning_rate=0.900000
connection_rate=0.700000
network_type=0
learning_momentum=0.200000
training_algorithm=3
train_error_function=1
train_stop_function=0
cascade_output_change_fraction=0.010000
quickprop_decay=-0.000100
quickprop_mu=1.750000
rprop_increase_factor=1.200000
rprop_decrease_factor=0.500000
rprop_delta_min=0.000000
rprop_delta_max=50.000000
rprop_delta_zero=0.100000
cascade_output_stagnation_epochs=12
cascade_candidate_change_fraction=0.010000
cascade_candidate_stagnation_epochs=12
cascade_max_out_epochs=150
cascade_max_cand_epochs=150
cascade_num_candidate_groups=2
bit_fail_limit=3.49999994039535520000e-001
cascade_candidate_limit=1.00000000000000000000e+003
cascade_weight_multiplier=4.00000005960464480000e-001
cascade_activation_functions_count=10
cascade_activation_functions=3 5 7 8 10 11 14 15 16 17 
cascade_activation_steepnesses_count=4
cascade_activation_steepnesses=2.50000000000000000000e-001 5.00000000000000000000e-001 7.50000000000000000000e-001 1.00000000000000000000e+000 
layer_sizes=13 8 4 2 
scale_included=0
neurons (num_inputs, activation_function, activation_steepness)=(0, 0, 0.00000000000000000000e+000) (0, 0, 0.00000000000000000000e+000) (0, 0, 0.00000000000000000000e+000) (0, 0, 0.00000000000000000000e+000) (0, 0, 0.00000000000000000000e+000) (0, 0, 0.00000000000000000000e+000) (0, 0, 0.00000000000000000000e+000) (0, 0, 0.00000000000000000000e+000) (0, 0, 0.00000000000000000000e+000) (0, 0, 0.00000000000000000000e+000) (0, 0, 0.00000000000000000000e+000) (0, 0, 0.00000000000000000000e+000) (0, 0, 0.00000000000000000000e+000) (9, 4, 5.00000000000000000000e-001) (9, 4, 5.00000000000000000000e-001) (10, 4, 5.00000000000000000000e-001) (9, 4, 5.00000000000000000000e-001) (10, 4, 5.00000000000000000000e-001) (9, 4, 5.00000000000000000000e-001) (10, 4, 5.00000000000000000000e-001) (0, 4, 5.00000000000000000000e-001) (6, 4, 5.00000000000000000000e-001) (6, 4, 5.00000000000000000000e-001) (6, 4, 5.00000000000000000000e-001) (0, 4, 5.00000000000000000000e-001) (4, 8, 5.00000000000000000000e-001) (0, 8, 5.00000000000000000000e-001) 
connections (connected_to_neuron, weight)=(12, -1.68592631816864010000e+000) (7, 1.22398746013641360000e+000) (5, 6.98860704898834230000e-001) (4, -2.72471129894256590000e-001) (1, -2.40471386909484860000e+000) (10, -3.96079093217849730000e-001) (9, 3.20132994651794430000e+000) (3, 2.11519122123718260000e+000) (0, -1.53718858957290650000e-001) (12, 1.79659157991409300000e-001) (0, 9.82078909873962400000e-001) (2, 1.00440812110900880000e+000) (5, 9.86667335033416750000e-001) (9, 4.03605811297893520000e-002) (10, 4.40062463283538820000e-001) (8, 8.77880156040191650000e-001) (7, 7.22693383693695070000e-001) (6, 6.23527407646179200000e-001) (12, 1.04484647512435910000e-001) (1, 1.10290634632110600000e+000) (7, 1.15137070417404170000e-001) (11, 1.49673551321029660000e-001) (10, 1.80484727025032040000e-001) (8, 1.21493911743164060000e+000) (2, 3.80994319915771480000e-001) (9, 4.63649541139602660000e-001) (5, 7.86905884742736820000e-001) (0, 2.89141714572906490000e-001) (12, 3.21907247416675090000e-003) (4, 8.38166534900665280000e-001) (2, 1.00293242931365970000e+000) (1, 9.64540123939514160000e-001) (5, 6.68824911117553710000e-001) (9, 1.73585462570190430000e+000) (10, 9.24201130867004390000e-001) (8, -7.73446187376976010000e-002) (7, 5.99678456783294680000e-001) (12, -3.61213064193725590000e+000) (6, -3.49410384893417360000e-001) (4, 7.58478417992591860000e-003) (9, 2.51493597030639650000e+000) (2, 1.66064694523811340000e-001) (3, 9.88315641880035400000e-001) (10, 5.36084294319152830000e-001) (8, 1.34693562984466550000e+000) (7, 1.15512704849243160000e+000) (0, -1.14726328849792480000e+000) (12, -8.78411650657653810000e-001) (3, -8.02523553371429440000e-001) (6, -6.43932402133941650000e-001) (8, -2.16151908040046690000e-001) (11, 4.35206604003906250000e+000) (10, -4.39119219779968260000e-001) (5, 5.84725141525268550000e-002) (1, 9.10988509654998780000e-001) (0, -5.96000730991363530000e-001) (12, -9.96692478656768800000e-001) (5, 3.04170668125152590000e-001) (3, 7.31953799724578860000e-001) (4, 4.40213412046432500000e-001) (9, 4.00033891201019290000e-001) (0, 9.34765219688415530000e-001) (10, 5.22502481937408450000e-001) (1, 6.87018752098083500000e-001) (7, 5.80849051475524900000e-001) (2, 7.37036406993865970000e-001) (20, -9.39762234687805180000e-001) (17, 8.14278960227966310000e-001) (19, 1.55259311199188230000e-001) (13, 1.04951895773410800000e-001) (16, 8.10804247856140140000e-001) (18, 1.05173099040985110000e+000) (20, -2.60769367218017580000e+000) (13, 2.45756554603576660000e+000) (16, 4.16952848434448240000e-001) (18, 2.30047988891601560000e+000) (15, -1.38406479358673100000e+000) (17, 2.45754551887512210000e+000) (20, -1.27278363704681400000e+000) (14, 9.70079228281974790000e-002) (15, -1.09951205551624300000e-001) (17, 1.31492447853088380000e+000) (13, 1.36549985408782960000e+000) (16, -1.19092416763305660000e+000) (24, -1.61617863178253170000e+000) (21, 5.49892902374267580000e-001) (22, 1.54197955131530760000e+000) (23, -2.51973891258239750000e+000) 
