FANN_FLO_2.1
num_layers=4
learning_rate=0.900000
connection_rate=0.700000
network_type=0
learning_momentum=0.200000
training_algorithm=2
train_error_function=1
train_stop_function=0
cascade_output_change_fraction=0.010000
quickprop_decay=-0.000100
quickprop_mu=1.750000
rprop_increase_factor=1.200000
rprop_decrease_factor=0.500000
rprop_delta_min=0.000000
rprop_delta_max=50.000000
rprop_delta_zero=0.100000
cascade_output_stagnation_epochs=12
cascade_candidate_change_fraction=0.010000
cascade_candidate_stagnation_epochs=12
cascade_max_out_epochs=150
cascade_max_cand_epochs=150
cascade_num_candidate_groups=2
bit_fail_limit=3.49999994039535520000e-001
cascade_candidate_limit=1.00000000000000000000e+003
cascade_weight_multiplier=4.00000005960464480000e-001
cascade_activation_functions_count=10
cascade_activation_functions=3 5 7 8 10 11 14 15 16 17 
cascade_activation_steepnesses_count=4
cascade_activation_steepnesses=2.50000000000000000000e-001 5.00000000000000000000e-001 7.50000000000000000000e-001 1.00000000000000000000e+000 
layer_sizes=13 8 4 2 
scale_included=0
neurons (num_inputs, activation_function, activation_steepness)=(0, 0, 0.00000000000000000000e+000) (0, 0, 0.00000000000000000000e+000) (0, 0, 0.00000000000000000000e+000) (0, 0, 0.00000000000000000000e+000) (0, 0, 0.00000000000000000000e+000) (0, 0, 0.00000000000000000000e+000) (0, 0, 0.00000000000000000000e+000) (0, 0, 0.00000000000000000000e+000) (0, 0, 0.00000000000000000000e+000) (0, 0, 0.00000000000000000000e+000) (0, 0, 0.00000000000000000000e+000) (0, 0, 0.00000000000000000000e+000) (0, 0, 0.00000000000000000000e+000) (9, 4, 5.00000000000000000000e-001) (9, 4, 5.00000000000000000000e-001) (10, 4, 5.00000000000000000000e-001) (9, 4, 5.00000000000000000000e-001) (10, 4, 5.00000000000000000000e-001) (9, 4, 5.00000000000000000000e-001) (10, 4, 5.00000000000000000000e-001) (0, 4, 5.00000000000000000000e-001) (6, 4, 5.00000000000000000000e-001) (6, 4, 5.00000000000000000000e-001) (6, 4, 5.00000000000000000000e-001) (0, 4, 5.00000000000000000000e-001) (4, 8, 5.00000000000000000000e-001) (0, 8, 5.00000000000000000000e-001) 
connections (connected_to_neuron, weight)=(12, -1.23407745361328120000e+000) (7, 1.10073399543762210000e+000) (5, 2.92089313268661500000e-001) (4, 1.82265624403953550000e-001) (1, -9.30462554097175600000e-002) (10, 7.96505987644195560000e-001) (9, 2.81126427650451660000e+000) (3, 1.16828119754791260000e+000) (0, -1.08682356774806980000e-001) (12, 1.56129136681556700000e-001) (0, 1.20126175880432130000e+000) (2, 1.08595311641693120000e+000) (5, 1.25624036788940430000e+000) (9, 1.41890153288841250000e-001) (10, 5.91331064701080320000e-001) (8, 7.98890292644500730000e-001) (7, 1.02546632289886470000e+000) (6, 6.88519060611724850000e-001) (12, 5.26661396026611330000e-001) (1, 1.29401564598083500000e+000) (7, 5.19940435886383060000e-001) (11, 5.68610489368438720000e-001) (10, 2.47218936681747440000e-001) (8, 5.89717149734497070000e-001) (2, 4.72239345312118530000e-001) (9, 9.60481405258178710000e-001) (5, 1.13371837139129640000e+000) (0, 5.12194871902465820000e-001) (12, -6.51028379797935490000e-002) (4, 8.79570007324218750000e-001) (2, 1.06279778480529790000e+000) (1, 9.09585773944854740000e-001) (5, 4.30720448493957520000e-001) (9, 1.20179975032806400000e+000) (10, 7.60573923587799070000e-001) (8, 5.17945826053619380000e-001) (7, 4.00874912738800050000e-002) (12, -3.33512902259826660000e+000) (6, 2.17794373631477360000e-001) (4, 1.62445619702339170000e-001) (9, 1.78860318660736080000e+000) (2, 7.36650109291076660000e-001) (3, -1.89245671033859250000e-001) (10, 1.76304316520690920000e+000) (8, 1.79837596416473390000e+000) (7, 1.31409204006195070000e+000) (0, -8.06532382965087890000e-001) (12, -1.46975016593933110000e+000) (3, -2.17248767614364620000e-001) (6, -2.53554940223693850000e-001) (8, 6.39748051762580870000e-002) (11, 3.63806343078613280000e+000) (10, -2.73628056049346920000e-001) (5, -1.60947274416685100000e-002) (1, 3.17143023014068600000e-001) (0, -6.10147833824157710000e-001) (12, -1.14694476127624510000e+000) (5, 3.61809551715850830000e-001) (3, 8.59607517719268800000e-001) (4, 5.21315932273864750000e-001) (9, 4.76305216550827030000e-001) (0, 1.09859681129455570000e+000) (10, 6.13725364208221440000e-001) (1, 8.14745247364044190000e-001) (7, 6.91088795661926270000e-001) (2, 8.71953785419464110000e-001) (20, -1.05026805400848390000e+000) (17, 9.45653200149536130000e-001) (19, 1.90461426973342900000e-001) (13, 2.42690026760101320000e-001) (16, 1.06190049648284910000e+000) (18, 1.18778896331787110000e+000) (20, -2.26387643814086910000e+000) (13, 1.72459399700164790000e+000) (16, 1.54464080929756160000e-001) (18, 2.42556071281433110000e+000) (15, -5.81549286842346190000e-001) (17, 1.03058552742004390000e+000) (20, -1.66014420986175540000e+000) (14, 4.83187735080718990000e-001) (15, 3.46948988735675810000e-002) (17, 1.20409250259399410000e+000) (13, 4.15311247110366820000e-001) (16, -6.59943073987960820000e-002) (24, -1.34597492218017580000e+000) (21, -6.51312649250030520000e-001) (22, 2.07756614685058590000e+000) (23, -1.01783835887908940000e+000) 
